<?xml version="1.0"?>
<opencv_storage>
<stage6>
  <maxWeakCount>16</maxWeakCount>
  <stageThreshold>-1.4445207081735134e-02</stageThreshold>
  <weakClassifiers>
    <_>
      <internalNodes>
        0 -1 1583389 -1.7210740596055984e-02</internalNodes>
      <leafValues>
        7.9734617471694946e-01 -3.5593220591545105e-01</leafValues></_>
    <_>
      <internalNodes>
        0 -1 2132497 6.2445258663501590e-05</internalNodes>
      <leafValues>
        -3.1670311093330383e-01 4.9190011620521545e-01</leafValues></_>
    <_>
      <internalNodes>
        0 -1 1416644 5.1748171448707581e-02</internalNodes>
      <leafValues>
        -1.6474343836307526e-01 8.4207564592361450e-01</leafValues></_>
    <_>
      <internalNodes>
        0 -1 1116048 -5.1592677831649780e-01</internalNodes>
      <leafValues>
        9.0737700462341309e-01 -1.2773007154464722e-01</leafValues></_>
    <_>
      <internalNodes>
        0 -1 700797 -7.0248883962631226e-01</internalNodes>
      <leafValues>
        9.4811820983886719e-01 -1.8767628073692322e-01</leafValues></_>
    <_>
      <internalNodes>
        0 -1 1278696 -4.2079039849340916e-04</internalNodes>
      <leafValues>
        5.3643620014190674e-01 -2.5303244590759277e-01</leafValues></_>
    <_>
      <internalNodes>
        0 -1 483991 -2.3245030641555786e-01</internalNodes>
      <leafValues>
        -6.8658733367919922e-01 2.2147943079471588e-01</leafValues></_>
    <_>
      <internalNodes>
        0 -1 1215232 -2.3815825115889311e-03</internalNodes>
      <leafValues>
        2.6443809270858765e-01 -5.3110116720199585e-01</leafValues></_>
    <_>
      <internalNodes>
        0 -1 1833951 -1.1905344203114510e-02</internalNodes>
      <leafValues>
        5.3268408775329590e-01 -2.3378787934780121e-01</leafValues></_>
    <_>
      <internalNodes>
        0 -1 2092924 4.8661269247531891e-02</internalNodes>
      <leafValues>
        -1.2441157549619675e-01 8.7972766160964966e-01</leafValues></_>
    <_>
      <internalNodes>
        0 -1 465121 -2.0115807274123654e-05</internalNodes>
      <leafValues>
        3.6987382173538208e-01 -3.0252584815025330e-01</leafValues></_>
    <_>
      <internalNodes>
        0 -1 13893 -7.4160063266754150e-01</internalNodes>
      <leafValues>
        8.8344174623489380e-01 -1.2733353674411774e-01</leafValues></_>
    <_>
      <internalNodes>
        0 -1 117172 1.6270900232484564e-05</internalNodes>
      <leafValues>
        2.0675605535507202e-01 -6.0286808013916016e-01</leafValues></_>
    <_>
      <internalNodes>
        0 -1 2784948 1.0242622920486610e-05</internalNodes>
      <leafValues>
        -2.2617807984352112e-01 5.4135453701019287e-01</leafValues></_>
    <_>
      <internalNodes>
        0 -1 1438296 -8.1598106771707535e-03</internalNodes>
      <leafValues>
        4.8700365424156189e-01 -2.0548096299171448e-01</leafValues></_>
    <_>
      <internalNodes>
        0 -1 3017208 -7.8741075412835926e-05</internalNodes>
      <leafValues>
        -9.2797976732254028e-01 1.2180583178997040e-01</leafValues></_></weakClassifiers></stage6>
</opencv_storage>
