<?xml version="1.0"?>
<opencv_storage>
<stage1>
  <maxWeakCount>5</maxWeakCount>
  <stageThreshold>-1.4214923381805420e+00</stageThreshold>
  <weakClassifiers>
    <_>
      <internalNodes>
        0 -1 131526 -2.0049098134040833e-01</internalNodes>
      <leafValues>
        7.8656852245330811e-01 -8.1662505865097046e-01</leafValues></_>
    <_>
      <internalNodes>
        0 -1 25048 -2.1569278836250305e-01</internalNodes>
      <leafValues>
        7.8094738721847534e-01 -6.4585781097412109e-01</leafValues></_>
    <_>
      <internalNodes>
        0 -1 170359 4.5143744500819594e-05</internalNodes>
      <leafValues>
        -5.7758927345275879e-01 5.0913381576538086e-01</leafValues></_>
    <_>
      <internalNodes>
        0 -1 9088 -8.1116065382957458e-02</internalNodes>
      <leafValues>
        2.6998203992843628e-01 -8.7187349796295166e-01</leafValues></_>
    <_>
      <internalNodes>
        0 -1 174771 4.4170927139930427e-05</internalNodes>
      <leafValues>
        -6.1232197284698486e-01 3.4859776496887207e-01</leafValues></_></weakClassifiers></stage1>
</opencv_storage>
