<?xml version="1.0"?>
<opencv_storage>
<stage3>
  <maxWeakCount>13</maxWeakCount>
  <stageThreshold>-1.8637418746948242e-01</stageThreshold>
  <weakClassifiers>
    <_>
      <internalNodes>
        0 -1 71906 -1.0955787450075150e-01</internalNodes>
      <leafValues>
        8.6760526895523071e-01 5.9665869921445847e-02</leafValues></_>
    <_>
      <internalNodes>
        0 -1 2810838 9.5602190413046628e-06</internalNodes>
      <leafValues>
        -5.9052526950836182e-01 5.6563681364059448e-01</leafValues></_>
    <_>
      <internalNodes>
        0 -1 3019891 -7.3325136327184737e-05</internalNodes>
      <leafValues>
        -6.7211276292800903e-01 3.4453696012496948e-01</leafValues></_>
    <_>
      <internalNodes>
        0 -1 258070 -6.4579451084136963e-01</internalNodes>
      <leafValues>
        9.7692996263504028e-01 -2.1063607931137085e-01</leafValues></_>
    <_>
      <internalNodes>
        0 -1 308792 -3.4878015518188477e-01</internalNodes>
      <leafValues>
        5.3044122457504272e-01 -4.0579617023468018e-01</leafValues></_>
    <_>
      <internalNodes>
        0 -1 98396 9.0060697402805090e-05</internalNodes>
      <leafValues>
        2.2533074021339417e-01 -6.8840688467025757e-01</leafValues></_>
    <_>
      <internalNodes>
        0 -1 112528 2.8804163448512554e-03</internalNodes>
      <leafValues>
        -6.0671937465667725e-01 2.1076780557632446e-01</leafValues></_>
    <_>
      <internalNodes>
        0 -1 1010927 -2.4946986231952906e-03</internalNodes>
      <leafValues>
        3.2269340753555298e-01 -4.5429810881614685e-01</leafValues></_>
    <_>
      <internalNodes>
        0 -1 352805 1.5982778277248144e-03</internalNodes>
      <leafValues>
        -2.4185663461685181e-01 5.1654869318008423e-01</leafValues></_>
    <_>
      <internalNodes>
        0 -1 2959148 1.0632358680595644e-05</internalNodes>
      <leafValues>
        -4.0786451101303101e-01 2.9435601830482483e-01</leafValues></_>
    <_>
      <internalNodes>
        0 -1 1116050 -5.1088130474090576e-01</internalNodes>
      <leafValues>
        9.5049506425857544e-01 -1.4309218525886536e-01</leafValues></_>
    <_>
      <internalNodes>
        0 -1 2518513 -1.1188981588929892e-03</internalNodes>
      <leafValues>
        3.9766868948936462e-01 -3.0833831429481506e-01</leafValues></_>
    <_>
      <internalNodes>
        0 -1 2969299 8.1389967817813158e-04</internalNodes>
      <leafValues>
        1.5080085396766663e-01 -8.3550173044204712e-01</leafValues></_></weakClassifiers></stage3>
</opencv_storage>
