<?xml version="1.0"?>
<opencv_storage>
<stage7>
  <maxWeakCount>35</maxWeakCount>
  <stageThreshold>-6.0453337430953979e-01</stageThreshold>
  <weakClassifiers>
    <_>
      <internalNodes>
        0 -1 69314 -8.9831419289112091e-02</internalNodes>
      <leafValues>
        6.7967927455902100e-01 -4.5578232407569885e-01</leafValues></_>
    <_>
      <internalNodes>
        0 -1 25638 -1.6905909776687622e-01</internalNodes>
      <leafValues>
        5.5762976408004761e-01 -2.0592728257179260e-01</leafValues></_>
    <_>
      <internalNodes>
        0 -1 83490 -6.6448998451232910e-01</internalNodes>
      <leafValues>
        8.3023273944854736e-01 -1.4703322947025299e-01</leafValues></_>
    <_>
      <internalNodes>
        0 -1 74440 -4.5705366134643555e-01</internalNodes>
      <leafValues>
        8.4666949510574341e-01 -1.0096541792154312e-01</leafValues></_>
    <_>
      <internalNodes>
        0 -1 69399 -2.4700231733731925e-05</internalNodes>
      <leafValues>
        1.7990197241306305e-01 -5.5793130397796631e-01</leafValues></_>
    <_>
      <internalNodes>
        0 -1 87165 6.5201707184314728e-02</internalNodes>
      <leafValues>
        -1.5476377308368683e-01 7.0343941450119019e-01</leafValues></_>
    <_>
      <internalNodes>
        0 -1 37699 -9.9853537976741791e-02</internalNodes>
      <leafValues>
        6.6156804561614990e-01 -1.2329532951116562e-01</leafValues></_>
    <_>
      <internalNodes>
        0 -1 71500 -5.5560433864593506e-01</internalNodes>
      <leafValues>
        6.8129926919937134e-01 -1.1643798649311066e-01</leafValues></_>
    <_>
      <internalNodes>
        0 -1 173802 -4.2251247912645340e-02</internalNodes>
      <leafValues>
        7.9705625772476196e-01 -1.0197976231575012e-01</leafValues></_>
    <_>
      <internalNodes>
        0 -1 122684 7.7889531850814819e-02</internalNodes>
      <leafValues>
        -8.9535638689994812e-02 5.7156491279602051e-01</leafValues></_>
    <_>
      <internalNodes>
        0 -1 137706 4.6605327952420339e-05</internalNodes>
      <leafValues>
        -4.6555131673812866e-01 1.6676811873912811e-01</leafValues></_>
    <_>
      <internalNodes>
        0 -1 71069 -4.8263391363434494e-05</internalNodes>
      <leafValues>
        2.2646398842334747e-01 -2.6859679818153381e-01</leafValues></_>
    <_>
      <internalNodes>
        0 -1 95720 -5.3907185792922974e-02</internalNodes>
      <leafValues>
        9.4999320805072784e-02 -6.3743221759796143e-01</leafValues></_>
    <_>
      <internalNodes>
        0 -1 72253 -1.2304048985242844e-01</internalNodes>
      <leafValues>
        6.7307555675506592e-01 -1.0920251905918121e-01</leafValues></_>
    <_>
      <internalNodes>
        0 -1 58257 -5.4597601294517517e-02</internalNodes>
      <leafValues>
        2.2526876628398895e-01 -3.3234074711799622e-01</leafValues></_>
    <_>
      <internalNodes>
        0 -1 617 -2.5619006156921387e-01</internalNodes>
      <leafValues>
        -6.4076852798461914e-01 1.0027907788753510e-01</leafValues></_>
    <_>
      <internalNodes>
        0 -1 126513 -1.6468521207571030e-02</internalNodes>
      <leafValues>
        3.6406227946281433e-01 -1.6292949020862579e-01</leafValues></_>
    <_>
      <internalNodes>
        0 -1 141475 -1.0920307040214539e-01</internalNodes>
      <leafValues>
        -3.0042877793312073e-01 2.4653407931327820e-01</leafValues></_>
    <_>
      <internalNodes>
        0 -1 156532 -9.7768526757135987e-05</internalNodes>
      <leafValues>
        1.6757114231586456e-01 -4.1294938325881958e-01</leafValues></_>
    <_>
      <internalNodes>
        0 -1 61906 -3.5392606258392334e-01</internalNodes>
      <leafValues>
        5.2826958894729614e-01 -1.2643420696258545e-01</leafValues></_>
    <_>
      <internalNodes>
        0 -1 75610 -4.5226318761706352e-03</internalNodes>
      <leafValues>
        -2.3855440318584442e-01 2.8404501080513000e-01</leafValues></_>
    <_>
      <internalNodes>
        0 -1 19023 -8.3066284656524658e-02</internalNodes>
      <leafValues>
        8.0556392669677734e-02 -8.0534768104553223e-01</leafValues></_>
    <_>
      <internalNodes>
        0 -1 85989 1.5418926253914833e-02</internalNodes>
      <leafValues>
        -9.6047356724739075e-02 6.9047749042510986e-01</leafValues></_>
    <_>
      <internalNodes>
        0 -1 148905 -4.0849125070963055e-05</internalNodes>
      <leafValues>
        1.8381635844707489e-01 -3.3420932292938232e-01</leafValues></_>
    <_>
      <internalNodes>
        0 -1 137762 -2.1705210208892822e-02</internalNodes>
      <leafValues>
        7.5973147153854370e-01 -6.8570770323276520e-02</leafValues></_>
    <_>
      <internalNodes>
        0 -1 152805 5.7728117099031806e-05</internalNodes>
      <leafValues>
        -4.7903943061828613e-01 1.3526052236557007e-01</leafValues></_>
    <_>
      <internalNodes>
        0 -1 147915 -2.7740725781768560e-03</internalNodes>
      <leafValues>
        -3.7318691611289978e-01 1.4249047636985779e-01</leafValues></_>
    <_>
      <internalNodes>
        0 -1 3389 -1.3611614704132080e-03</internalNodes>
      <leafValues>
        -6.4460361003875732e-01 7.2143748402595520e-02</leafValues></_>
    <_>
      <internalNodes>
        0 -1 41674 -4.7272747906390578e-05</internalNodes>
      <leafValues>
        2.0804707705974579e-01 -2.3591631650924683e-01</leafValues></_>
    <_>
      <internalNodes>
        0 -1 2713 -1.8979597091674805e-01</internalNodes>
      <leafValues>
        -5.2094691991806030e-01 1.1207992583513260e-01</leafValues></_>
    <_>
      <internalNodes>
        0 -1 74915 -1.8053147941827774e-02</internalNodes>
      <leafValues>
        7.1310955286026001e-01 -7.3939591646194458e-02</leafValues></_>
    <_>
      <internalNodes>
        0 -1 108302 5.8225011453032494e-03</internalNodes>
      <leafValues>
        -6.9039463996887207e-02 6.5522557497024536e-01</leafValues></_>
    <_>
      <internalNodes>
        0 -1 73008 -1.4875170588493347e-01</internalNodes>
      <leafValues>
        8.4716284275054932e-01 -4.6951238065958023e-02</leafValues></_>
    <_>
      <internalNodes>
        0 -1 32262 -6.6278207302093506e-01</internalNodes>
      <leafValues>
        6.4609324932098389e-01 -7.4844449758529663e-02</leafValues></_>
    <_>
      <internalNodes>
        0 -1 138299 4.7883226216072217e-05</internalNodes>
      <leafValues>
        -3.2113888859748840e-01 1.8126852810382843e-01</leafValues></_></weakClassifiers></stage7>
</opencv_storage>
