<?xml version="1.0"?>
<opencv_storage>
<stage2>
  <maxWeakCount>6</maxWeakCount>
  <stageThreshold>7.8963302075862885e-02</stageThreshold>
  <weakClassifiers>
    <_>
      <internalNodes>
        0 -1 316797 -1.6262009739875793e-01</internalNodes>
      <leafValues>
        9.3825954198837280e-01 -1.5690235793590546e-01</leafValues></_>
    <_>
      <internalNodes>
        0 -1 2076721 -1.8640327453613281e-01</internalNodes>
      <leafValues>
        8.0644232034683228e-01 -3.5103407502174377e-01</leafValues></_>
    <_>
      <internalNodes>
        0 -1 2871517 1.0184429811488371e-05</internalNodes>
      <leafValues>
        -4.6573418378829956e-01 5.5084246397018433e-01</leafValues></_>
    <_>
      <internalNodes>
        0 -1 1692214 -1.0439920515636913e-05</internalNodes>
      <leafValues>
        3.9570209383964539e-01 -5.0532692670822144e-01</leafValues></_>
    <_>
      <internalNodes>
        0 -1 2579935 1.0873479368456174e-05</internalNodes>
      <leafValues>
        -5.5176603794097900e-01 3.0960789322853088e-01</leafValues></_>
    <_>
      <internalNodes>
        0 -1 1274710 2.0866369595751166e-05</internalNodes>
      <leafValues>
        -5.3262025117874146e-01 3.4732392430305481e-01</leafValues></_></weakClassifiers></stage2>
</opencv_storage>
