<?xml version="1.0"?>
<opencv_storage>
<stage7>
  <maxWeakCount>14</maxWeakCount>
  <stageThreshold>1.5407715737819672e-01</stageThreshold>
  <weakClassifiers>
    <_>
      <internalNodes>
        0 -1 2515858 -1.3447551464196295e-04</internalNodes>
      <leafValues>
        -7.4747473001480103e-01 7.8522378206253052e-01</leafValues></_>
    <_>
      <internalNodes>
        0 -1 2302726 -5.2003338169015478e-06</internalNodes>
      <leafValues>
        4.9568718671798706e-01 -3.1994569301605225e-01</leafValues></_>
    <_>
      <internalNodes>
        0 -1 614028 -6.7972195148468018e-01</internalNodes>
      <leafValues>
        9.7947168350219727e-01 -1.5775994956493378e-01</leafValues></_>
    <_>
      <internalNodes>
        0 -1 1407504 -2.4983140826225281e-01</internalNodes>
      <leafValues>
        9.3823552131652832e-01 -1.6938941180706024e-01</leafValues></_>
    <_>
      <internalNodes>
        0 -1 2428347 1.1021447789971717e-05</internalNodes>
      <leafValues>
        -5.5423176288604736e-01 2.9485884308815002e-01</leafValues></_>
    <_>
      <internalNodes>
        0 -1 589729 -1.4447225257754326e-03</internalNodes>
      <leafValues>
        4.1252869367599487e-01 -4.0152293443679810e-01</leafValues></_>
    <_>
      <internalNodes>
        0 -1 944334 6.5938472747802734e-02</internalNodes>
      <leafValues>
        -1.8387085199356079e-01 8.9636558294296265e-01</leafValues></_>
    <_>
      <internalNodes>
        0 -1 2278773 -5.0069456920027733e-03</internalNodes>
      <leafValues>
        6.1442697048187256e-01 -2.8558793663978577e-01</leafValues></_>
    <_>
      <internalNodes>
        0 -1 4833 1.0181697143707424e-04</internalNodes>
      <leafValues>
        2.1769343316555023e-01 -7.3164194822311401e-01</leafValues></_>
    <_>
      <internalNodes>
        0 -1 1513653 -1.9250272214412689e-01</internalNodes>
      <leafValues>
        8.0330622196197510e-01 -1.8960224092006683e-01</leafValues></_>
    <_>
      <internalNodes>
        0 -1 2968779 1.7452129395678639e-04</internalNodes>
      <leafValues>
        -4.2426466941833496e-01 3.4473738074302673e-01</leafValues></_>
    <_>
      <internalNodes>
        0 -1 955253 -3.5198663681512699e-05</internalNodes>
      <leafValues>
        2.5676536560058594e-01 -4.7554132342338562e-01</leafValues></_>
    <_>
      <internalNodes>
        0 -1 2739443 5.4751176321587991e-06</internalNodes>
      <leafValues>
        -6.2712669372558594e-01 1.7598702013492584e-01</leafValues></_>
    <_>
      <internalNodes>
        0 -1 95769 1.8680330365896225e-02</internalNodes>
      <leafValues>
        -1.8005195260047913e-01 5.7058471441268921e-01</leafValues></_></weakClassifiers></stage7>
</opencv_storage>
