<?xml version="1.0"?>
<opencv_storage>
<cascade>
  <stageType>BOOST</stageType>
  <featureType>HAAR</featureType>
  <height>25</height>
  <width>25</width>
  <stageParams>
    <boostType>GAB</boostType>
    <minHitRate>9.9500000476837158e-01</minHitRate>
    <maxFalseAlarm>3.0000001192092896e-01</maxFalseAlarm>
    <weightTrimRate>9.4999999999999996e-01</weightTrimRate>
    <maxDepth>1</maxDepth>
    <maxWeakCount>100</maxWeakCount></stageParams>
  <featureParams>
    <maxCatCount>0</maxCatCount>
    <featSize>1</featSize>
    <mode>BASIC</mode></featureParams>
  <stageNum>8</stageNum>
  <stages>
    <!-- stage 0 -->
    <_>
      <maxWeakCount>2</maxWeakCount>
      <stageThreshold>6.7751705646514893e-02</stageThreshold>
      <weakClassifiers>
        <_>
          <internalNodes>
            0 -1 23 -1.0537145286798477e-01</internalNodes>
          <leafValues>
            9.6539139747619629e-01 -8.7771201133728027e-01</leafValues></_>
        <_>
          <internalNodes>
            0 -1 107 -1.4004179835319519e-01</internalNodes>
          <leafValues>
            9.4546371698379517e-01 -7.8143435716629028e-01</leafValues></_></weakClassifiers></_>
    <!-- stage 1 -->
    <_>
      <maxWeakCount>5</maxWeakCount>
      <stageThreshold>-3.5296583175659180e-01</stageThreshold>
      <weakClassifiers>
        <_>
          <internalNodes>
            0 -1 126 -9.5751613378524780e-02</internalNodes>
          <leafValues>
            9.6611630916595459e-01 -3.3983287215232849e-01</leafValues></_>
        <_>
          <internalNodes>
            0 -1 13 -7.8878067433834076e-02</internalNodes>
          <leafValues>
            7.9085385799407959e-01 -7.9093229770660400e-01</leafValues></_>
        <_>
          <internalNodes>
            0 -1 137 4.6182028949260712e-02</internalNodes>
          <leafValues>
            -7.1440333127975464e-01 6.2603074312210083e-01</leafValues></_>
        <_>
          <internalNodes>
            0 -1 150 4.8936126404441893e-05</internalNodes>
          <leafValues>
            -6.1494731903076172e-01 5.9761208295822144e-01</leafValues></_>
        <_>
          <internalNodes>
            0 -1 135 -4.5891036279499531e-05</internalNodes>
          <leafValues>
            5.2536380290985107e-01 -5.9359419345855713e-01</leafValues></_></weakClassifiers></_>
    <!-- stage 2 -->
    <_>
      <maxWeakCount>9</maxWeakCount>
      <stageThreshold>-6.3584744930267334e-01</stageThreshold>
      <weakClassifiers>
        <_>
          <internalNodes>
            0 -1 121 -1.2365756928920746e-01</internalNodes>
          <leafValues>
            8.6436784267425537e-01 -6.9832402467727661e-01</leafValues></_>
        <_>
          <internalNodes>
            0 -1 25 -1.7592945694923401e-01</internalNodes>
          <leafValues>
            8.1711685657501221e-01 -5.5532294511795044e-01</leafValues></_>
        <_>
          <internalNodes>
            0 -1 127 -1.9165249168872833e-01</internalNodes>
          <leafValues>
            8.3847892284393311e-01 -3.6177435517311096e-01</leafValues></_>
        <_>
          <internalNodes>
            0 -1 159 4.5016873627901077e-05</internalNodes>
          <leafValues>
            -5.4358720779418945e-01 5.0318181514739990e-01</leafValues></_>
        <_>
          <internalNodes>
            0 -1 114 -2.1967520297039300e-05</internalNodes>
          <leafValues>
            3.9343085885047913e-01 -4.9462479352951050e-01</leafValues></_>
        <_>
          <internalNodes>
            0 -1 93 2.1869020201847889e-05</internalNodes>
          <leafValues>
            -3.7095212936401367e-01 5.6111586093902588e-01</leafValues></_>
        <_>
          <internalNodes>
            0 -1 40 -3.7384390830993652e-01</internalNodes>
          <leafValues>
            8.5151422023773193e-01 -2.1981233358383179e-01</leafValues></_>
        <_>
          <internalNodes>
            0 -1 73 -5.3047016263008118e-02</internalNodes>
          <leafValues>
            7.7791750431060791e-01 -2.2882595658302307e-01</leafValues></_>
        <_>
          <internalNodes>
            0 -1 139 4.7488269046880305e-05</internalNodes>
          <leafValues>
            -5.2327406406402588e-01 3.8662880659103394e-01</leafValues></_></weakClassifiers></_>
    <!-- stage 3 -->
    <_>
      <maxWeakCount>15</maxWeakCount>
      <stageThreshold>-7.4490988254547119e-01</stageThreshold>
      <weakClassifiers>
        <_>
          <internalNodes>
            0 -1 24 -1.1460945010185242e-01</internalNodes>
          <leafValues>
            8.5720592737197876e-01 -3.4767836332321167e-01</leafValues></_>
        <_>
          <internalNodes>
            0 -1 120 -2.4500948190689087e-01</internalNodes>
          <leafValues>
            7.8591471910476685e-01 -3.5531681776046753e-01</leafValues></_>
        <_>
          <internalNodes>
            0 -1 26 -2.0941087603569031e-01</internalNodes>
          <leafValues>
            7.4062359333038330e-01 -2.1117579936981201e-01</leafValues></_>
        <_>
          <internalNodes>
            0 -1 158 2.2639400413027033e-05</internalNodes>
          <leafValues>
            -4.9911504983901978e-01 4.0472361445426941e-01</leafValues></_>
        <_>
          <internalNodes>
            0 -1 170 5.0205113366246223e-03</internalNodes>
          <leafValues>
            2.2155417501926422e-01 -7.1862733364105225e-01</leafValues></_>
        <_>
          <internalNodes>
            0 -1 163 2.2718417312717065e-05</internalNodes>
          <leafValues>
            -5.1839011907577515e-01 2.9335445165634155e-01</leafValues></_>
        <_>
          <internalNodes>
            0 -1 70 -2.1871243417263031e-01</internalNodes>
          <leafValues>
            8.9871323108673096e-01 -1.9436953961849213e-01</leafValues></_>
        <_>
          <internalNodes>
            0 -1 62 -2.9443937540054321e-01</internalNodes>
          <leafValues>
            8.1096184253692627e-01 -1.6358125209808350e-01</leafValues></_>
        <_>
          <internalNodes>
            0 -1 44 -2.5089902919717133e-05</internalNodes>
          <leafValues>
            2.6154613494873047e-01 -5.7871460914611816e-01</leafValues></_>
        <_>
          <internalNodes>
            0 -1 128 -2.2305177481030114e-05</internalNodes>
          <leafValues>
            4.6688231825828552e-01 -2.5991302728652954e-01</leafValues></_>
        <_>
          <internalNodes>
            0 -1 115 -4.7245557652786374e-05</internalNodes>
          <leafValues>
            2.8408822417259216e-01 -3.7276247143745422e-01</leafValues></_>
        <_>
          <internalNodes>
            0 -1 156 -8.2408034359104931e-05</internalNodes>
          <leafValues>
            4.0999349951744080e-01 -2.7220734953880310e-01</leafValues></_>
        <_>
          <internalNodes>
            0 -1 6 -1.4667488634586334e-01</internalNodes>
          <leafValues>
            3.0897054076194763e-01 -3.7052851915359497e-01</leafValues></_>
        <_>
          <internalNodes>
            0 -1 49 2.2834288756712340e-05</internalNodes>
          <leafValues>
            -3.2356306910514832e-01 3.1040740013122559e-01</leafValues></_>
        <_>
          <internalNodes>
            0 -1 14 3.3364839851856232e-02</internalNodes>
          <leafValues>
            -2.8351232409477234e-01 3.6530092358589172e-01</leafValues></_></weakClassifiers></_>
    <!-- stage 4 -->
    <_>
      <maxWeakCount>21</maxWeakCount>
      <stageThreshold>-5.9463769197463989e-01</stageThreshold>
      <weakClassifiers>
        <_>
          <internalNodes>
            0 -1 131 -3.0326751992106438e-02</internalNodes>
          <leafValues>
            8.1836271286010742e-01 -3.7812501192092896e-01</leafValues></_>
        <_>
          <internalNodes>
            0 -1 133 7.7583819627761841e-02</internalNodes>
          <leafValues>
            -6.2261891365051270e-01 5.2875226736068726e-01</leafValues></_>
        <_>
          <internalNodes>
            0 -1 124 -5.3411651402711868e-02</internalNodes>
          <leafValues>
            5.4411619901657104e-01 -3.5673433542251587e-01</leafValues></_>
        <_>
          <internalNodes>
            0 -1 94 4.2942621803376824e-05</internalNodes>
          <leafValues>
            -4.6883687376976013e-01 3.5039833188056946e-01</leafValues></_>
        <_>
          <internalNodes>
            0 -1 96 -4.0446615219116211e-01</internalNodes>
          <leafValues>
            7.5828713178634644e-01 -1.8716791272163391e-01</leafValues></_>
        <_>
          <internalNodes>
            0 -1 39 -5.6178796291351318e-01</internalNodes>
          <leafValues>
            8.5638964176177979e-01 -2.5390899181365967e-01</leafValues></_>
        <_>
          <internalNodes>
            0 -1 32 -2.5525139790261164e-05</internalNodes>
          <leafValues>
            3.0072215199470520e-01 -6.5641319751739502e-01</leafValues></_>
        <_>
          <internalNodes>
            0 -1 152 4.7916713810991496e-05</internalNodes>
          <leafValues>
            -4.7058427333831787e-01 1.9722874462604523e-01</leafValues></_>
        <_>
          <internalNodes>
            0 -1 91 1.9610781222581863e-02</internalNodes>
          <leafValues>
            -1.7136494815349579e-01 6.6145735979080200e-01</leafValues></_>
        <_>
          <internalNodes>
            0 -1 110 -3.1696572899818420e-02</internalNodes>
          <leafValues>
            5.6424891948699951e-01 -2.0375826954841614e-01</leafValues></_>
        <_>
          <internalNodes>
            0 -1 138 -4.3894047848880291e-05</internalNodes>
          <leafValues>
            4.6534088253974915e-01 -1.9898173213005066e-01</leafValues></_>
        <_>
          <internalNodes>
            0 -1 27 9.5502147451043129e-03</internalNodes>
          <leafValues>
            1.8420751392841339e-01 -5.8966547250747681e-01</leafValues></_>
        <_>
          <internalNodes>
            0 -1 11 -9.1820299625396729e-02</internalNodes>
          <leafValues>
            1.3881348073482513e-01 -5.5004787445068359e-01</leafValues></_>
        <_>
          <internalNodes>
            0 -1 151 -4.6501165343215689e-05</internalNodes>
          <leafValues>
            3.4678211808204651e-01 -2.5331750512123108e-01</leafValues></_>
        <_>
          <internalNodes>
            0 -1 56 -1.6338759660720825e-01</internalNodes>
          <leafValues>
            8.0977398157119751e-01 -1.0711116343736649e-01</leafValues></_>
        <_>
          <internalNodes>
            0 -1 130 2.5575503968866542e-05</internalNodes>
          <leafValues>
            -4.8163348436355591e-01 2.1092069149017334e-01</leafValues></_>
        <_>
          <internalNodes>
            0 -1 69 -3.6100584268569946e-01</internalNodes>
          <leafValues>
            7.7749717235565186e-01 -1.3682976365089417e-01</leafValues></_>
        <_>
          <internalNodes>
            0 -1 116 4.9408219638280571e-05</internalNodes>
          <leafValues>
            -2.4802415072917938e-01 3.1387194991111755e-01</leafValues></_>
        <_>
          <internalNodes>
            0 -1 136 -1.7853859753813595e-04</internalNodes>
          <leafValues>
            3.2699459791183472e-01 -2.3909619450569153e-01</leafValues></_>
        <_>
          <internalNodes>
            0 -1 85 -4.9353981012245640e-05</internalNodes>
          <leafValues>
            3.3125534653663635e-01 -2.1317145228385925e-01</leafValues></_>
        <_>
          <internalNodes>
            0 -1 146 -1.7394079267978668e-01</internalNodes>
          <leafValues>
            5.8208519220352173e-01 -1.1998555809259415e-01</leafValues></_></weakClassifiers></_>
    <!-- stage 5 -->
    <_>
      <maxWeakCount>33</maxWeakCount>
      <stageThreshold>-5.9237462282180786e-01</stageThreshold>
      <weakClassifiers>
        <_>
          <internalNodes>
            0 -1 2 -9.0050533413887024e-02</internalNodes>
          <leafValues>
            8.1703287363052368e-01 -2.4263674020767212e-01</leafValues></_>
        <_>
          <internalNodes>
            0 -1 108 -2.8068757057189941e-01</internalNodes>
          <leafValues>
            8.5184741020202637e-01 -2.6803236454725266e-02</leafValues></_>
        <_>
          <internalNodes>
            0 -1 42 -1.4288282394409180e-01</internalNodes>
          <leafValues>
            5.7730889320373535e-01 -2.4845886230468750e-01</leafValues></_>
        <_>
          <internalNodes>
            0 -1 29 -6.3285958766937256e-01</internalNodes>
          <leafValues>
            7.9313963651657104e-01 -1.6877771914005280e-01</leafValues></_>
        <_>
          <internalNodes>
            0 -1 38 -5.8554416894912720e-01</internalNodes>
          <leafValues>
            8.6895859241485596e-01 -7.1519441902637482e-02</leafValues></_>
        <_>
          <internalNodes>
            0 -1 15 -4.7625711886212230e-05</internalNodes>
          <leafValues>
            2.8162610530853271e-01 -3.2693612575531006e-01</leafValues></_>
        <_>
          <internalNodes>
            0 -1 103 1.0220552980899811e-01</internalNodes>
          <leafValues>
            -1.6989369690418243e-01 7.0033919811248779e-01</leafValues></_>
        <_>
          <internalNodes>
            0 -1 119 -1.9361283630132675e-02</internalNodes>
          <leafValues>
            5.2403330802917480e-01 -2.3433904349803925e-01</leafValues></_>
        <_>
          <internalNodes>
            0 -1 153 -5.7455459609627724e-03</internalNodes>
          <leafValues>
            -6.5190535783767700e-01 1.3653394579887390e-01</leafValues></_>
        <_>
          <internalNodes>
            0 -1 1 -2.0692081749439240e-01</internalNodes>
          <leafValues>
            -5.8179199695587158e-01 9.6513539552688599e-02</leafValues></_>
        <_>
          <internalNodes>
            0 -1 122 -2.9468499124050140e-02</internalNodes>
          <leafValues>
            1.1959751695394516e-01 -5.6070375442504883e-01</leafValues></_>
        <_>
          <internalNodes>
            0 -1 3 -2.1954734623432159e-01</internalNodes>
          <leafValues>
            -8.0385333299636841e-01 9.1936200857162476e-02</leafValues></_>
        <_>
          <internalNodes>
            0 -1 105 8.8777596829459071e-05</internalNodes>
          <leafValues>
            -2.8884992003440857e-01 1.9842718541622162e-01</leafValues></_>
        <_>
          <internalNodes>
            0 -1 90 -2.7062242850661278e-02</internalNodes>
          <leafValues>
            4.7388303279876709e-01 -1.3415180146694183e-01</leafValues></_>
        <_>
          <internalNodes>
            0 -1 46 -4.7776964493095875e-05</internalNodes>
          <leafValues>
            2.4691668152809143e-01 -2.6519256830215454e-01</leafValues></_>
        <_>
          <internalNodes>
            0 -1 60 -4.0056884288787842e-01</internalNodes>
          <leafValues>
            8.3626431226730347e-01 -7.7740535140037537e-02</leafValues></_>
        <_>
          <internalNodes>
            0 -1 58 -4.5959335565567017e-01</internalNodes>
          <leafValues>
            7.5390309095382690e-01 -8.3200655877590179e-02</leafValues></_>
        <_>
          <internalNodes>
            0 -1 80 -9.4718430191278458e-03</internalNodes>
          <leafValues>
            1.9539067149162292e-01 -3.5695600509643555e-01</leafValues></_>
        <_>
          <internalNodes>
            0 -1 89 -1.1355091631412506e-01</internalNodes>
          <leafValues>
            8.1080090999603271e-01 -8.3564847707748413e-02</leafValues></_>
        <_>
          <internalNodes>
            0 -1 95 1.5954617410898209e-03</internalNodes>
          <leafValues>
            -1.3558910787105560e-01 4.2796373367309570e-01</leafValues></_>
        <_>
          <internalNodes>
            0 -1 67 -7.1208342909812927e-02</internalNodes>
          <leafValues>
            6.1199349164962769e-01 -1.0297301411628723e-01</leafValues></_>
        <_>
          <internalNodes>
            0 -1 147 4.8980935389408842e-05</internalNodes>
          <leafValues>
            -3.3198359608650208e-01 1.9729158282279968e-01</leafValues></_>
        <_>
          <internalNodes>
            0 -1 143 1.4639860391616821e-01</internalNodes>
          <leafValues>
            -6.9319605827331543e-02 8.9425563812255859e-01</leafValues></_>
        <_>
          <internalNodes>
            0 -1 9 -5.5223055183887482e-02</internalNodes>
          <leafValues>
            9.2002034187316895e-02 -7.3732203245162964e-01</leafValues></_>
        <_>
          <internalNodes>
            0 -1 167 4.0081911720335484e-03</internalNodes>
          <leafValues>
            1.3402837514877319e-01 -4.3510326743125916e-01</leafValues></_>
        <_>
          <internalNodes>
            0 -1 118 9.5362687716260552e-05</internalNodes>
          <leafValues>
            -3.4025427699089050e-01 1.5778410434722900e-01</leafValues></_>
        <_>
          <internalNodes>
            0 -1 155 -5.0223976373672485e-02</internalNodes>
          <leafValues>
            5.2158021926879883e-01 -1.0314406454563141e-01</leafValues></_>
        <_>
          <internalNodes>
            0 -1 48 4.4053358578821644e-05</internalNodes>
          <leafValues>
            -1.7081783711910248e-01 2.9795375466346741e-01</leafValues></_>
        <_>
          <internalNodes>
            0 -1 17 5.5504555348306894e-04</internalNodes>
          <leafValues>
            6.4245253801345825e-02 -8.7774032354354858e-01</leafValues></_>
        <_>
          <internalNodes>
            0 -1 88 -9.6300229430198669e-02</internalNodes>
          <leafValues>
            5.4499059915542603e-01 -1.1046687513589859e-01</leafValues></_>
        <_>
          <internalNodes>
            0 -1 22 6.8282023072242737e-02</internalNodes>
          <leafValues>
            -8.4801211953163147e-02 7.3814392089843750e-01</leafValues></_>
        <_>
          <internalNodes>
            0 -1 54 -3.8459032773971558e-01</internalNodes>
          <leafValues>
            6.5772104263305664e-01 -7.1221373975276947e-02</leafValues></_>
        <_>
          <internalNodes>
            0 -1 16 -4.3074483983218670e-05</internalNodes>
          <leafValues>
            2.9290473461151123e-01 -2.0727470517158508e-01</leafValues></_></weakClassifiers></_>
    <!-- stage 6 -->
    <_>
      <maxWeakCount>46</maxWeakCount>
      <stageThreshold>-5.0242185592651367e-01</stageThreshold>
      <weakClassifiers>
        <_>
          <internalNodes>
            0 -1 63 3.9367876946926117e-02</internalNodes>
          <leafValues>
            -8.8028170168399811e-02 7.8306132555007935e-01</leafValues></_>
        <_>
          <internalNodes>
            0 -1 24 -2.2675451636314392e-01</internalNodes>
          <leafValues>
            6.5721619129180908e-01 -6.1631880700588226e-02</leafValues></_>
        <_>
          <internalNodes>
            0 -1 64 -7.1682894229888916e-01</internalNodes>
          <leafValues>
            7.7889931201934814e-01 -1.4577242732048035e-01</leafValues></_>
        <_>
          <internalNodes>
            0 -1 39 -6.1283206939697266e-01</internalNodes>
          <leafValues>
            8.2938337326049805e-01 -1.1667311191558838e-01</leafValues></_>
        <_>
          <internalNodes>
            0 -1 8 -6.4838526304811239e-04</internalNodes>
          <leafValues>
            1.8330247700214386e-01 -5.8966720104217529e-01</leafValues></_>
        <_>
          <internalNodes>
            0 -1 97 6.8273991346359253e-02</internalNodes>
          <leafValues>
            -1.5115644037723541e-01 7.2843384742736816e-01</leafValues></_>
        <_>
          <internalNodes>
            0 -1 162 -1.6402475012000650e-04</internalNodes>
          <leafValues>
            3.8617360591888428e-01 -2.3397247493267059e-01</leafValues></_>
        <_>
          <internalNodes>
            0 -1 77 -8.8376939296722412e-02</internalNodes>
          <leafValues>
            1.7891880869865417e-01 -5.2912336587905884e-01</leafValues></_>
        <_>
          <internalNodes>
            0 -1 10 -2.2694839572068304e-05</internalNodes>
          <leafValues>
            1.7992989718914032e-01 -3.8939011096954346e-01</leafValues></_>
        <_>
          <internalNodes>
            0 -1 81 -5.0184714794158936e-01</internalNodes>
          <leafValues>
            6.2181127071380615e-01 -1.2936796247959137e-01</leafValues></_>
        <_>
          <internalNodes>
            0 -1 117 4.9343292630510405e-05</internalNodes>
          <leafValues>
            -2.5216612219810486e-01 3.1565427780151367e-01</leafValues></_>
        <_>
          <internalNodes>
            0 -1 84 -4.1803169250488281e-01</internalNodes>
          <leafValues>
            7.6231169700622559e-01 -7.9280056059360504e-02</leafValues></_>
        <_>
          <internalNodes>
            0 -1 113 -4.6769138862146065e-05</internalNodes>
          <leafValues>
            2.9180270433425903e-01 -2.2531382739543915e-01</leafValues></_>
        <_>
          <internalNodes>
            0 -1 134 -3.1503690406680107e-03</internalNodes>
          <leafValues>
            2.0452387630939484e-01 -3.0741080641746521e-01</leafValues></_>
        <_>
          <internalNodes>
            0 -1 5 2.2046568337827921e-03</internalNodes>
          <leafValues>
            8.8206678628921509e-02 -6.8248611688613892e-01</leafValues></_>
        <_>
          <internalNodes>
            0 -1 99 -7.3498234152793884e-02</internalNodes>
          <leafValues>
            6.6170680522918701e-01 -9.8608806729316711e-02</leafValues></_>
        <_>
          <internalNodes>
            0 -1 66 8.1827729940414429e-02</internalNodes>
          <leafValues>
            -1.1224008351564407e-01 4.9016642570495605e-01</leafValues></_>
        <_>
          <internalNodes>
            0 -1 50 -1.3704637531191111e-03</internalNodes>
          <leafValues>
            -5.5650538206100464e-01 1.2454543262720108e-01</leafValues></_>
        <_>
          <internalNodes>
            0 -1 87 -4.9180306494235992e-02</internalNodes>
          <leafValues>
            6.0525220632553101e-01 -1.0737171024084091e-01</leafValues></_>
        <_>
          <internalNodes>
            0 -1 82 -3.8140006363391876e-02</internalNodes>
          <leafValues>
            -1.6682632267475128e-01 3.5247495770454407e-01</leafValues></_>
        <_>
          <internalNodes>
            0 -1 72 -3.9450183976441622e-05</internalNodes>
          <leafValues>
            2.4299372732639313e-01 -2.5838851928710938e-01</leafValues></_>
        <_>
          <internalNodes>
            0 -1 112 -8.5560714069288224e-05</internalNodes>
          <leafValues>
            1.8159124255180359e-01 -2.7051395177841187e-01</leafValues></_>
        <_>
          <internalNodes>
            0 -1 123 -5.5609045375604182e-05</internalNodes>
          <leafValues>
            1.2975065410137177e-01 -3.9099583029747009e-01</leafValues></_>
        <_>
          <internalNodes>
            0 -1 52 -4.8978301492752507e-05</internalNodes>
          <leafValues>
            2.3951457440853119e-01 -2.3996870219707489e-01</leafValues></_>
        <_>
          <internalNodes>
            0 -1 100 -2.2430095076560974e-01</internalNodes>
          <leafValues>
            7.3833751678466797e-01 -7.5539879500865936e-02</leafValues></_>
        <_>
          <internalNodes>
            0 -1 76 -1.3220314681529999e-01</internalNodes>
          <leafValues>
            5.4881083965301514e-01 -8.8353618979454041e-02</leafValues></_>
        <_>
          <internalNodes>
            0 -1 164 4.6404900786001235e-05</internalNodes>
          <leafValues>
            -2.4525250494480133e-01 2.4977816641330719e-01</leafValues></_>
        <_>
          <internalNodes>
            0 -1 168 3.5610841587185860e-03</internalNodes>
          <leafValues>
            8.0104649066925049e-02 -6.4474022388458252e-01</leafValues></_>
        <_>
          <internalNodes>
            0 -1 51 -3.7249413132667542e-01</internalNodes>
          <leafValues>
            8.3851987123489380e-01 -6.7435771226882935e-02</leafValues></_>
        <_>
          <internalNodes>
            0 -1 74 -2.9986291192471981e-03</internalNodes>
          <leafValues>
            3.5551980137825012e-01 -1.2914571166038513e-01</leafValues></_>
        <_>
          <internalNodes>
            0 -1 110 5.9675332158803940e-02</internalNodes>
          <leafValues>
            -6.9575816392898560e-02 7.2154861688613892e-01</leafValues></_>
        <_>
          <internalNodes>
            0 -1 165 5.1704875659197569e-05</internalNodes>
          <leafValues>
            -1.2556947767734528e-01 3.6908444762229919e-01</leafValues></_>
        <_>
          <internalNodes>
            0 -1 34 2.0783027634024620e-02</internalNodes>
          <leafValues>
            -8.0307804048061371e-02 6.1673659086227417e-01</leafValues></_>
        <_>
          <internalNodes>
            0 -1 145 3.7677953514503315e-05</internalNodes>
          <leafValues>
            -3.5458728671073914e-01 1.4566889405250549e-01</leafValues></_>
        <_>
          <internalNodes>
            0 -1 102 -1.6290460526943207e-01</internalNodes>
          <leafValues>
            7.0165133476257324e-01 -7.4622914195060730e-02</leafValues></_>
        <_>
          <internalNodes>
            0 -1 0 2.3484923876821995e-03</internalNodes>
          <leafValues>
            8.5802644491195679e-02 -6.1688208580017090e-01</leafValues></_>
        <_>
          <internalNodes>
            0 -1 166 6.8729574559256434e-04</internalNodes>
          <leafValues>
            1.1378879845142365e-01 -3.7053027749061584e-01</leafValues></_>
        <_>
          <internalNodes>
            0 -1 59 -5.1241455366834998e-05</internalNodes>
          <leafValues>
            2.6792398095130920e-01 -1.7740614712238312e-01</leafValues></_>
        <_>
          <internalNodes>
            0 -1 47 4.4272484956309199e-05</internalNodes>
          <leafValues>
            -8.5558995604515076e-02 5.0484174489974976e-01</leafValues></_>
        <_>
          <internalNodes>
            0 -1 35 -3.0554662225767970e-04</internalNodes>
          <leafValues>
            1.7514395713806152e-01 -2.4372071027755737e-01</leafValues></_>
        <_>
          <internalNodes>
            0 -1 129 -1.6336937248706818e-01</internalNodes>
          <leafValues>
            3.9666658639907837e-01 -1.1384049803018570e-01</leafValues></_>
        <_>
          <internalNodes>
            0 -1 20 -2.6519334316253662e-01</internalNodes>
          <leafValues>
            -6.3749831914901733e-01 7.6586097478866577e-02</leafValues></_>
        <_>
          <internalNodes>
            0 -1 101 -5.3559602238237858e-03</internalNodes>
          <leafValues>
            4.0409246087074280e-01 -1.1970633268356323e-01</leafValues></_>
        <_>
          <internalNodes>
            0 -1 140 -5.3959820419549942e-02</internalNodes>
          <leafValues>
            9.0976363420486450e-01 -4.6337336301803589e-02</leafValues></_>
        <_>
          <internalNodes>
            0 -1 43 -1.6827546060085297e-02</internalNodes>
          <leafValues>
            1.3889168202877045e-01 -3.5061129927635193e-01</leafValues></_>
        <_>
          <internalNodes>
            0 -1 21 -3.9673608541488647e-01</internalNodes>
          <leafValues>
            -6.4330428838729858e-01 6.0503911226987839e-02</leafValues></_></weakClassifiers></_>
    <!-- stage 7 -->
    <_>
      <maxWeakCount>44</maxWeakCount>
      <stageThreshold>-3.9745414257049561e-01</stageThreshold>
      <weakClassifiers>
        <_>
          <internalNodes>
            0 -1 12 6.9541886448860168e-02</internalNodes>
          <leafValues>
            -3.9030954241752625e-02 7.9979807138442993e-01</leafValues></_>
        <_>
          <internalNodes>
            0 -1 132 -5.8036223053932190e-02</internalNodes>
          <leafValues>
            6.0689806938171387e-01 -5.1652077585458755e-02</leafValues></_>
        <_>
          <internalNodes>
            0 -1 36 -6.5549540519714355e-01</internalNodes>
          <leafValues>
            7.6740425825119019e-01 -1.4365471899509430e-01</leafValues></_>
        <_>
          <internalNodes>
            0 -1 65 -6.6795217990875244e-01</internalNodes>
          <leafValues>
            7.7532702684402466e-01 -1.1840930581092834e-01</leafValues></_>
        <_>
          <internalNodes>
            0 -1 4 -1.2977077066898346e-01</internalNodes>
          <leafValues>
            1.8158695101737976e-01 -4.2783811688423157e-01</leafValues></_>
        <_>
          <internalNodes>
            0 -1 109 3.8928378373384476e-02</internalNodes>
          <leafValues>
            -1.2301450967788696e-01 6.4621937274932861e-01</leafValues></_>
        <_>
          <internalNodes>
            0 -1 53 -4.8291254643118009e-05</internalNodes>
          <leafValues>
            2.5134712457656860e-01 -3.0754369497299194e-01</leafValues></_>
        <_>
          <internalNodes>
            0 -1 141 -6.4374744892120361e-02</internalNodes>
          <leafValues>
            -2.9541787505149841e-01 2.3851408064365387e-01</leafValues></_>
        <_>
          <internalNodes>
            0 -1 160 -5.0706323236227036e-03</internalNodes>
          <leafValues>
            -5.7995992898941040e-01 1.4514896273612976e-01</leafValues></_>
        <_>
          <internalNodes>
            0 -1 61 -1.0291454195976257e-01</internalNodes>
          <leafValues>
            5.6340402364730835e-01 -1.3877226412296295e-01</leafValues></_>
        <_>
          <internalNodes>
            0 -1 92 4.7967176884412766e-02</internalNodes>
          <leafValues>
            -1.0375119000673294e-01 5.9073758125305176e-01</leafValues></_>
        <_>
          <internalNodes>
            0 -1 45 -5.4418635368347168e-01</internalNodes>
          <leafValues>
            9.5268321037292480e-01 -5.3212162107229233e-02</leafValues></_>
        <_>
          <internalNodes>
            0 -1 57 -8.4619745612144470e-02</internalNodes>
          <leafValues>
            4.2874565720558167e-01 -1.6703714430332184e-01</leafValues></_>
        <_>
          <internalNodes>
            0 -1 31 -4.6497596486005932e-05</internalNodes>
          <leafValues>
            2.4491526186466217e-01 -3.0079901218414307e-01</leafValues></_>
        <_>
          <internalNodes>
            0 -1 106 -1.0196698829531670e-02</internalNodes>
          <leafValues>
            1.1564957350492477e-01 -5.5496287345886230e-01</leafValues></_>
        <_>
          <internalNodes>
            0 -1 157 -4.8378245992353186e-05</internalNodes>
          <leafValues>
            2.2028204798698425e-01 -2.4191650748252869e-01</leafValues></_>
        <_>
          <internalNodes>
            0 -1 7 -1.2811036407947540e-01</internalNodes>
          <leafValues>
            1.3752043247222900e-01 -3.6218553781509399e-01</leafValues></_>
        <_>
          <internalNodes>
            0 -1 55 -5.5115926265716553e-01</internalNodes>
          <leafValues>
            6.3422697782516479e-01 -1.0699907690286636e-01</leafValues></_>
        <_>
          <internalNodes>
            0 -1 68 1.2378431856632233e-03</internalNodes>
          <leafValues>
            -1.6163735091686249e-01 3.6102887988090515e-01</leafValues></_>
        <_>
          <internalNodes>
            0 -1 30 -1.1887139081954956e-01</internalNodes>
          <leafValues>
            6.0457432270050049e-01 -8.5892766714096069e-02</leafValues></_>
        <_>
          <internalNodes>
            0 -1 37 -4.6241781092248857e-05</internalNodes>
          <leafValues>
            2.4782739579677582e-01 -2.3491056263446808e-01</leafValues></_>
        <_>
          <internalNodes>
            0 -1 75 -9.4579212367534637e-02</internalNodes>
          <leafValues>
            5.4819548130035400e-01 -8.0084867775440216e-02</leafValues></_>
        <_>
          <internalNodes>
            0 -1 41 5.3803909569978714e-02</internalNodes>
          <leafValues>
            -1.1247161030769348e-01 3.6232736706733704e-01</leafValues></_>
        <_>
          <internalNodes>
            0 -1 154 -2.5692831259220839e-03</internalNodes>
          <leafValues>
            -5.8072775602340698e-01 9.3433536589145660e-02</leafValues></_>
        <_>
          <internalNodes>
            0 -1 169 4.0604998503113165e-05</internalNodes>
          <leafValues>
            -2.1690335869789124e-01 2.3625171184539795e-01</leafValues></_>
        <_>
          <internalNodes>
            0 -1 78 -4.3177813495276496e-05</internalNodes>
          <leafValues>
            2.0371603965759277e-01 -2.0575839281082153e-01</leafValues></_>
        <_>
          <internalNodes>
            0 -1 171 -2.7479145210236311e-03</internalNodes>
          <leafValues>
            -3.8783752918243408e-01 1.0702379792928696e-01</leafValues></_>
        <_>
          <internalNodes>
            0 -1 18 -1.1218071449548006e-03</internalNodes>
          <leafValues>
            -4.9459615349769592e-01 8.7033286690711975e-02</leafValues></_>
        <_>
          <internalNodes>
            0 -1 161 -4.9650447181193158e-05</internalNodes>
          <leafValues>
            4.4537466764450073e-01 -1.0084358602762222e-01</leafValues></_>
        <_>
          <internalNodes>
            0 -1 104 5.7840175926685333e-02</internalNodes>
          <leafValues>
            -4.3717968463897705e-01 9.6234917640686035e-02</leafValues></_>
        <_>
          <internalNodes>
            0 -1 142 -7.4120819568634033e-02</internalNodes>
          <leafValues>
            -2.3039723932743073e-01 2.4343438446521759e-01</leafValues></_>
        <_>
          <internalNodes>
            0 -1 19 -2.2701919078826904e-01</internalNodes>
          <leafValues>
            -4.0539383888244629e-01 1.4266858994960785e-01</leafValues></_>
        <_>
          <internalNodes>
            0 -1 86 -5.5325155699392781e-05</internalNodes>
          <leafValues>
            7.7111497521400452e-02 -6.3176459074020386e-01</leafValues></_>
        <_>
          <internalNodes>
            0 -1 149 -4.4789497042074800e-04</internalNodes>
          <leafValues>
            1.6102917492389679e-01 -3.0327299237251282e-01</leafValues></_>
        <_>
          <internalNodes>
            0 -1 83 -2.7851438522338867e-01</internalNodes>
          <leafValues>
            6.4941751956939697e-01 -7.0437572896480560e-02</leafValues></_>
        <_>
          <internalNodes>
            0 -1 125 -3.8488656282424927e-03</internalNodes>
          <leafValues>
            -5.8056557178497314e-01 9.4477184116840363e-02</leafValues></_>
        <_>
          <internalNodes>
            0 -1 28 -2.1526265144348145e-01</internalNodes>
          <leafValues>
            -8.2347768545150757e-01 4.7405742108821869e-02</leafValues></_>
        <_>
          <internalNodes>
            0 -1 79 3.8495451211929321e-02</internalNodes>
          <leafValues>
            -5.4274160414934158e-02 9.6880900859832764e-01</leafValues></_>
        <_>
          <internalNodes>
            0 -1 111 -4.9624708481132984e-04</internalNodes>
          <leafValues>
            1.0757467150688171e-01 -5.1042449474334717e-01</leafValues></_>
        <_>
          <internalNodes>
            0 -1 148 -5.4520133882761002e-02</internalNodes>
          <leafValues>
            5.2102512121200562e-01 -8.5231430828571320e-02</leafValues></_>
        <_>
          <internalNodes>
            0 -1 144 7.6904521847609431e-05</internalNodes>
          <leafValues>
            -2.1259522438049316e-01 2.2769671678543091e-01</leafValues></_>
        <_>
          <internalNodes>
            0 -1 98 -3.3114770054817200e-01</internalNodes>
          <leafValues>
            8.8341039419174194e-01 -4.9263034015893936e-02</leafValues></_>
        <_>
          <internalNodes>
            0 -1 33 -1.4484196901321411e-01</internalNodes>
          <leafValues>
            5.9665417671203613e-01 -5.9355150908231735e-02</leafValues></_>
        <_>
          <internalNodes>
            0 -1 71 -8.2156233489513397e-02</internalNodes>
          <leafValues>
            -1.8751682341098785e-01 2.6376521587371826e-01</leafValues></_></weakClassifiers></_></stages>
  <features>
    <_>
      <rects>
        <_>
          0 0 4 3 -1.</_>
        <_>
          2 0 2 3 2.</_></rects>
      <tilted>0</tilted></_>
    <_>
      <rects>
        <_>
          0 0 18 23 -1.</_>
        <_>
          6 0 6 23 3.</_></rects>
      <tilted>0</tilted></_>
    <_>
      <rects>
        <_>
          0 0 16 16 -1.</_>
        <_>
          0 0 8 8 2.</_>
        <_>
          8 8 8 8 2.</_></rects>
      <tilted>0</tilted></_>
    <_>
      <rects>
        <_>
          0 0 18 14 -1.</_>
        <_>
          0 0 9 7 2.</_>
        <_>
          9 7 9 7 2.</_></rects>
      <tilted>0</tilted></_>
    <_>
      <rects>
        <_>
          0 0 18 18 -1.</_>
        <_>
          0 0 9 9 2.</_>
        <_>
          9 9 9 9 2.</_></rects>
      <tilted>0</tilted></_>
    <_>
      <rects>
        <_>
          0 0 20 2 -1.</_>
        <_>
          0 0 10 1 2.</_>
        <_>
          10 1 10 1 2.</_></rects>
      <tilted>0</tilted></_>
    <_>
      <rects>
        <_>
          0 0 16 16 -1.</_>
        <_>
          0 8 16 8 2.</_></rects>
      <tilted>0</tilted></_>
    <_>
      <rects>
        <_>
          0 0 25 21 -1.</_>
        <_>
          0 7 25 7 3.</_></rects>
      <tilted>0</tilted></_>
    <_>
      <rects>
        <_>
          0 3 6 22 -1.</_>
        <_>
          3 3 3 22 2.</_></rects>
      <tilted>0</tilted></_>
    <_>
      <rects>
        <_>
          0 3 24 22 -1.</_>
        <_>
          8 3 8 22 3.</_></rects>
      <tilted>0</tilted></_>
    <_>
      <rects>
        <_>
          0 3 17 2 -1.</_>
        <_>
          0 4 17 1 2.</_></rects>
      <tilted>0</tilted></_>
    <_>
      <rects>
        <_>
          0 9 16 6 -1.</_>
        <_>
          8 9 8 6 2.</_></rects>
      <tilted>0</tilted></_>
    <_>
      <rects>
        <_>
          0 9 18 16 -1.</_>
        <_>
          0 9 9 8 2.</_>
        <_>
          9 17 9 8 2.</_></rects>
      <tilted>0</tilted></_>
    <_>
      <rects>
        <_>
          0 10 16 7 -1.</_>
        <_>
          8 10 8 7 2.</_></rects>
      <tilted>0</tilted></_>
    <_>
      <rects>
        <_>
          0 11 15 5 -1.</_>
        <_>
          5 11 5 5 3.</_></rects>
      <tilted>0</tilted></_>
    <_>
      <rects>
        <_>
          0 15 4 2 -1.</_>
        <_>
          2 15 2 2 2.</_></rects>
      <tilted>0</tilted></_>
    <_>
      <rects>
        <_>
          0 24 4 1 -1.</_>
        <_>
          2 24 2 1 2.</_></rects>
      <tilted>0</tilted></_>
    <_>
      <rects>
        <_>
          1 0 1 3 -1.</_>
        <_>
          1 1 1 1 3.</_></rects>
      <tilted>0</tilted></_>
    <_>
      <rects>
        <_>
          1 0 9 1 -1.</_>
        <_>
          4 0 3 1 3.</_></rects>
      <tilted>0</tilted></_>
    <_>
      <rects>
        <_>
          1 0 18 22 -1.</_>
        <_>
          7 0 6 22 3.</_></rects>
      <tilted>0</tilted></_>
    <_>
      <rects>
        <_>
          1 0 16 18 -1.</_>
        <_>
          1 0 8 9 2.</_>
        <_>
          9 9 8 9 2.</_></rects>
      <tilted>0</tilted></_>
    <_>
      <rects>
        <_>
          1 6 20 13 -1.</_>
        <_>
          11 6 10 13 2.</_></rects>
      <tilted>0</tilted></_>
    <_>
      <rects>
        <_>
          1 8 24 8 -1.</_>
        <_>
          1 8 12 4 2.</_>
        <_>
          13 12 12 4 2.</_></rects>
      <tilted>0</tilted></_>
    <_>
      <rects>
        <_>
          1 10 24 6 -1.</_>
        <_>
          9 10 8 6 3.</_></rects>
      <tilted>0</tilted></_>
    <_>
      <rects>
        <_>
          1 11 24 4 -1.</_>
        <_>
          9 11 8 4 3.</_></rects>
      <tilted>0</tilted></_>
    <_>
      <rects>
        <_>
          1 11 24 5 -1.</_>
        <_>
          9 11 8 5 3.</_></rects>
      <tilted>0</tilted></_>
    <_>
      <rects>
        <_>
          1 12 24 4 -1.</_>
        <_>
          9 12 8 4 3.</_></rects>
      <tilted>0</tilted></_>
    <_>
      <rects>
        <_>
          1 23 21 2 -1.</_>
        <_>
          8 23 7 2 3.</_></rects>
      <tilted>0</tilted></_>
    <_>
      <rects>
        <_>
          2 0 16 14 -1.</_>
        <_>
          2 0 8 7 2.</_>
        <_>
          10 7 8 7 2.</_></rects>
      <tilted>0</tilted></_>
    <_>
      <rects>
        <_>
          2 3 21 21 -1.</_>
        <_>
          2 10 21 7 3.</_></rects>
      <tilted>0</tilted></_>
    <_>
      <rects>
        <_>
          2 8 10 12 -1.</_>
        <_>
          2 12 10 4 3.</_></rects>
      <tilted>0</tilted></_>
    <_>
      <rects>
        <_>
          2 16 2 3 -1.</_>
        <_>
          3 16 1 3 2.</_></rects>
      <tilted>0</tilted></_>
    <_>
      <rects>
        <_>
          3 0 4 20 -1.</_>
        <_>
          5 0 2 20 2.</_></rects>
      <tilted>0</tilted></_>
    <_>
      <rects>
        <_>
          3 4 8 15 -1.</_>
        <_>
          3 9 8 5 3.</_></rects>
      <tilted>0</tilted></_>
    <_>
      <rects>
        <_>
          3 5 6 9 -1.</_>
        <_>
          3 8 6 3 3.</_></rects>
      <tilted>0</tilted></_>
    <_>
      <rects>
        <_>
          3 5 16 2 -1.</_>
        <_>
          3 5 8 1 2.</_>
        <_>
          11 6 8 1 2.</_></rects>
      <tilted>0</tilted></_>
    <_>
      <rects>
        <_>
          3 6 21 19 -1.</_>
        <_>
          10 6 7 19 3.</_></rects>
      <tilted>0</tilted></_>
    <_>
      <rects>
        <_>
          3 7 2 2 -1.</_>
        <_>
          4 7 1 2 2.</_></rects>
      <tilted>0</tilted></_>
    <_>
      <rects>
        <_>
          3 7 21 12 -1.</_>
        <_>
          10 7 7 12 3.</_></rects>
      <tilted>0</tilted></_>
    <_>
      <rects>
        <_>
          3 7 21 14 -1.</_>
        <_>
          10 7 7 14 3.</_></rects>
      <tilted>0</tilted></_>
    <_>
      <rects>
        <_>
          3 9 21 9 -1.</_>
        <_>
          10 9 7 9 3.</_></rects>
      <tilted>0</tilted></_>
    <_>
      <rects>
        <_>
          3 9 20 10 -1.</_>
        <_>
          3 9 10 5 2.</_>
        <_>
          13 14 10 5 2.</_></rects>
      <tilted>0</tilted></_>
    <_>
      <rects>
        <_>
          3 12 21 3 -1.</_>
        <_>
          10 12 7 3 3.</_></rects>
      <tilted>0</tilted></_>
    <_>
      <rects>
        <_>
          4 4 19 6 -1.</_>
        <_>
          4 7 19 3 2.</_></rects>
      <tilted>0</tilted></_>
    <_>
      <rects>
        <_>
          4 6 2 12 -1.</_>
        <_>
          5 6 1 12 2.</_></rects>
      <tilted>0</tilted></_>
    <_>
      <rects>
        <_>
          4 7 18 13 -1.</_>
        <_>
          10 7 6 13 3.</_></rects>
      <tilted>0</tilted></_>
    <_>
      <rects>
        <_>
          4 9 2 1 -1.</_>
        <_>
          5 9 1 1 2.</_></rects>
      <tilted>0</tilted></_>
    <_>
      <rects>
        <_>
          4 11 2 2 -1.</_>
        <_>
          5 11 1 2 2.</_></rects>
      <tilted>0</tilted></_>
    <_>
      <rects>
        <_>
          4 14 1 3 -1.</_>
        <_>
          4 15 1 1 3.</_></rects>
      <tilted>0</tilted></_>
    <_>
      <rects>
        <_>
          4 17 1 4 -1.</_>
        <_>
          4 19 1 2 2.</_></rects>
      <tilted>0</tilted></_>
    <_>
      <rects>
        <_>
          5 0 18 2 -1.</_>
        <_>
          5 0 9 1 2.</_>
        <_>
          14 1 9 1 2.</_></rects>
      <tilted>0</tilted></_>
    <_>
      <rects>
        <_>
          5 1 15 14 -1.</_>
        <_>
          5 8 15 7 2.</_></rects>
      <tilted>0</tilted></_>
    <_>
      <rects>
        <_>
          5 3 1 4 -1.</_>
        <_>
          5 5 1 2 2.</_></rects>
      <tilted>0</tilted></_>
    <_>
      <rects>
        <_>
          5 3 2 4 -1.</_>
        <_>
          5 5 2 2 2.</_></rects>
      <tilted>0</tilted></_>
    <_>
      <rects>
        <_>
          5 3 15 22 -1.</_>
        <_>
          10 3 5 22 3.</_></rects>
      <tilted>0</tilted></_>
    <_>
      <rects>
        <_>
          5 4 18 21 -1.</_>
        <_>
          11 4 6 21 3.</_></rects>
      <tilted>0</tilted></_>
    <_>
      <rects>
        <_>
          5 6 7 15 -1.</_>
        <_>
          5 11 7 5 3.</_></rects>
      <tilted>0</tilted></_>
    <_>
      <rects>
        <_>
          5 6 20 14 -1.</_>
        <_>
          5 6 10 7 2.</_>
        <_>
          15 13 10 7 2.</_></rects>
      <tilted>0</tilted></_>
    <_>
      <rects>
        <_>
          5 6 19 18 -1.</_>
        <_>
          5 12 19 6 3.</_></rects>
      <tilted>0</tilted></_>
    <_>
      <rects>
        <_>
          5 7 2 2 -1.</_>
        <_>
          5 7 1 1 2.</_>
        <_>
          6 8 1 1 2.</_></rects>
      <tilted>0</tilted></_>
    <_>
      <rects>
        <_>
          5 7 15 18 -1.</_>
        <_>
          10 7 5 18 3.</_></rects>
      <tilted>0</tilted></_>
    <_>
      <rects>
        <_>
          5 7 7 12 -1.</_>
        <_>
          5 11 7 4 3.</_></rects>
      <tilted>0</tilted></_>
    <_>
      <rects>
        <_>
          5 8 18 8 -1.</_>
        <_>
          11 8 6 8 3.</_></rects>
      <tilted>0</tilted></_>
    <_>
      <rects>
        <_>
          5 15 15 10 -1.</_>
        <_>
          5 20 15 5 2.</_></rects>
      <tilted>0</tilted></_>
    <_>
      <rects>
        <_>
          6 1 15 24 -1.</_>
        <_>
          6 9 15 8 3.</_></rects>
      <tilted>0</tilted></_>
    <_>
      <rects>
        <_>
          6 3 17 21 -1.</_>
        <_>
          6 10 17 7 3.</_></rects>
      <tilted>0</tilted></_>
    <_>
      <rects>
        <_>
          6 5 14 16 -1.</_>
        <_>
          6 5 7 8 2.</_>
        <_>
          13 13 7 8 2.</_></rects>
      <tilted>0</tilted></_>
    <_>
      <rects>
        <_>
          6 6 5 12 -1.</_>
        <_>
          6 10 5 4 3.</_></rects>
      <tilted>0</tilted></_>
    <_>
      <rects>
        <_>
          6 7 3 9 -1.</_>
        <_>
          6 10 3 3 3.</_></rects>
      <tilted>0</tilted></_>
    <_>
      <rects>
        <_>
          6 7 15 17 -1.</_>
        <_>
          11 7 5 17 3.</_></rects>
      <tilted>0</tilted></_>
    <_>
      <rects>
        <_>
          6 7 16 12 -1.</_>
        <_>
          6 11 16 4 3.</_></rects>
      <tilted>0</tilted></_>
    <_>
      <rects>
        <_>
          6 7 18 12 -1.</_>
        <_>
          6 11 18 4 3.</_></rects>
      <tilted>0</tilted></_>
    <_>
      <rects>
        <_>
          6 8 2 1 -1.</_>
        <_>
          7 8 1 1 2.</_></rects>
      <tilted>0</tilted></_>
    <_>
      <rects>
        <_>
          6 8 10 9 -1.</_>
        <_>
          6 11 10 3 3.</_></rects>
      <tilted>0</tilted></_>
    <_>
      <rects>
        <_>
          6 11 16 2 -1.</_>
        <_>
          6 11 8 1 2.</_>
        <_>
          14 12 8 1 2.</_></rects>
      <tilted>0</tilted></_>
    <_>
      <rects>
        <_>
          6 14 12 5 -1.</_>
        <_>
          12 14 6 5 2.</_></rects>
      <tilted>0</tilted></_>
    <_>
      <rects>
        <_>
          6 15 15 6 -1.</_>
        <_>
          11 15 5 6 3.</_></rects>
      <tilted>0</tilted></_>
    <_>
      <rects>
        <_>
          7 0 18 24 -1.</_>
        <_>
          13 0 6 24 3.</_></rects>
      <tilted>0</tilted></_>
    <_>
      <rects>
        <_>
          7 2 3 2 -1.</_>
        <_>
          7 3 3 1 2.</_></rects>
      <tilted>0</tilted></_>
    <_>
      <rects>
        <_>
          7 2 5 12 -1.</_>
        <_>
          7 8 5 6 2.</_></rects>
      <tilted>0</tilted></_>
    <_>
      <rects>
        <_>
          7 2 17 6 -1.</_>
        <_>
          7 5 17 3 2.</_></rects>
      <tilted>0</tilted></_>
    <_>
      <rects>
        <_>
          7 4 18 18 -1.</_>
        <_>
          7 10 18 6 3.</_></rects>
      <tilted>0</tilted></_>
    <_>
      <rects>
        <_>
          7 5 12 10 -1.</_>
        <_>
          11 5 4 10 3.</_></rects>
      <tilted>0</tilted></_>
    <_>
      <rects>
        <_>
          7 6 12 19 -1.</_>
        <_>
          11 6 4 19 3.</_></rects>
      <tilted>0</tilted></_>
    <_>
      <rects>
        <_>
          7 6 15 19 -1.</_>
        <_>
          12 6 5 19 3.</_></rects>
      <tilted>0</tilted></_>
    <_>
      <rects>
        <_>
          7 7 2 2 -1.</_>
        <_>
          7 7 1 1 2.</_>
        <_>
          8 8 1 1 2.</_></rects>
      <tilted>0</tilted></_>
    <_>
      <rects>
        <_>
          7 7 2 15 -1.</_>
        <_>
          8 7 1 15 2.</_></rects>
      <tilted>0</tilted></_>
    <_>
      <rects>
        <_>
          7 7 12 3 -1.</_>
        <_>
          11 7 4 3 3.</_></rects>
      <tilted>0</tilted></_>
    <_>
      <rects>
        <_>
          7 7 12 14 -1.</_>
        <_>
          7 7 6 7 2.</_>
        <_>
          13 14 6 7 2.</_></rects>
      <tilted>0</tilted></_>
    <_>
      <rects>
        <_>
          7 8 12 12 -1.</_>
        <_>
          7 8 6 6 2.</_>
        <_>
          13 14 6 6 2.</_></rects>
      <tilted>0</tilted></_>
    <_>
      <rects>
        <_>
          7 10 10 2 -1.</_>
        <_>
          12 10 5 2 2.</_></rects>
      <tilted>0</tilted></_>
    <_>
      <rects>
        <_>
          7 11 10 6 -1.</_>
        <_>
          7 11 5 3 2.</_>
        <_>
          12 14 5 3 2.</_></rects>
      <tilted>0</tilted></_>
    <_>
      <rects>
        <_>
          7 11 14 8 -1.</_>
        <_>
          7 11 7 4 2.</_>
        <_>
          14 15 7 4 2.</_></rects>
      <tilted>0</tilted></_>
    <_>
      <rects>
        <_>
          7 16 1 2 -1.</_>
        <_>
          7 17 1 1 2.</_></rects>
      <tilted>0</tilted></_>
    <_>
      <rects>
        <_>
          7 22 7 2 -1.</_>
        <_>
          7 23 7 1 2.</_></rects>
      <tilted>0</tilted></_>
    <_>
      <rects>
        <_>
          8 3 1 15 -1.</_>
        <_>
          8 8 1 5 3.</_></rects>
      <tilted>0</tilted></_>
    <_>
      <rects>
        <_>
          8 5 13 18 -1.</_>
        <_>
          8 11 13 6 3.</_></rects>
      <tilted>0</tilted></_>
    <_>
      <rects>
        <_>
          8 8 10 12 -1.</_>
        <_>
          8 8 5 6 2.</_>
        <_>
          13 14 5 6 2.</_></rects>
      <tilted>0</tilted></_>
    <_>
      <rects>
        <_>
          8 8 15 11 -1.</_>
        <_>
          13 8 5 11 3.</_></rects>
      <tilted>0</tilted></_>
    <_>
      <rects>
        <_>
          8 9 10 10 -1.</_>
        <_>
          8 9 5 5 2.</_>
        <_>
          13 14 5 5 2.</_></rects>
      <tilted>0</tilted></_>
    <_>
      <rects>
        <_>
          8 9 14 12 -1.</_>
        <_>
          8 13 14 4 3.</_></rects>
      <tilted>0</tilted></_>
    <_>
      <rects>
        <_>
          8 13 6 2 -1.</_>
        <_>
          10 13 2 2 3.</_></rects>
      <tilted>0</tilted></_>
    <_>
      <rects>
        <_>
          8 15 15 7 -1.</_>
        <_>
          13 15 5 7 3.</_></rects>
      <tilted>0</tilted></_>
    <_>
      <rects>
        <_>
          9 3 10 20 -1.</_>
        <_>
          9 3 5 10 2.</_>
        <_>
          14 13 5 10 2.</_></rects>
      <tilted>0</tilted></_>
    <_>
      <rects>
        <_>
          9 13 9 12 -1.</_>
        <_>
          9 19 9 6 2.</_></rects>
      <tilted>0</tilted></_>
    <_>
      <rects>
        <_>
          9 16 1 2 -1.</_>
        <_>
          9 17 1 1 2.</_></rects>
      <tilted>0</tilted></_>
    <_>
      <rects>
        <_>
          10 0 12 25 -1.</_>
        <_>
          14 0 4 25 3.</_></rects>
      <tilted>0</tilted></_>
    <_>
      <rects>
        <_>
          10 1 7 24 -1.</_>
        <_>
          10 9 7 8 3.</_></rects>
      <tilted>0</tilted></_>
    <_>
      <rects>
        <_>
          10 3 6 21 -1.</_>
        <_>
          10 10 6 7 3.</_></rects>
      <tilted>0</tilted></_>
    <_>
      <rects>
        <_>
          10 6 6 14 -1.</_>
        <_>
          10 6 3 7 2.</_>
        <_>
          13 13 3 7 2.</_></rects>
      <tilted>0</tilted></_>
    <_>
      <rects>
        <_>
          10 7 8 12 -1.</_>
        <_>
          10 7 4 6 2.</_>
        <_>
          14 13 4 6 2.</_></rects>
      <tilted>0</tilted></_>
    <_>
      <rects>
        <_>
          10 8 8 2 -1.</_>
        <_>
          10 9 8 1 2.</_></rects>
      <tilted>0</tilted></_>
    <_>
      <rects>
        <_>
          10 10 2 1 -1.</_>
        <_>
          11 10 1 1 2.</_></rects>
      <tilted>0</tilted></_>
    <_>
      <rects>
        <_>
          10 10 2 2 -1.</_>
        <_>
          10 10 1 1 2.</_>
        <_>
          11 11 1 1 2.</_></rects>
      <tilted>0</tilted></_>
    <_>
      <rects>
        <_>
          10 11 2 1 -1.</_>
        <_>
          11 11 1 1 2.</_></rects>
      <tilted>0</tilted></_>
    <_>
      <rects>
        <_>
          10 15 2 1 -1.</_>
        <_>
          11 15 1 1 2.</_></rects>
      <tilted>0</tilted></_>
    <_>
      <rects>
        <_>
          10 16 2 2 -1.</_>
        <_>
          10 16 1 1 2.</_>
        <_>
          11 17 1 1 2.</_></rects>
      <tilted>0</tilted></_>
    <_>
      <rects>
        <_>
          10 17 2 2 -1.</_>
        <_>
          10 17 1 1 2.</_>
        <_>
          11 18 1 1 2.</_></rects>
      <tilted>0</tilted></_>
    <_>
      <rects>
        <_>
          10 23 14 2 -1.</_>
        <_>
          10 24 14 1 2.</_></rects>
      <tilted>0</tilted></_>
    <_>
      <rects>
        <_>
          11 1 6 22 -1.</_>
        <_>
          11 1 3 11 2.</_>
        <_>
          14 12 3 11 2.</_></rects>
      <tilted>0</tilted></_>
    <_>
      <rects>
        <_>
          11 1 6 24 -1.</_>
        <_>
          11 9 6 8 3.</_></rects>
      <tilted>0</tilted></_>
    <_>
      <rects>
        <_>
          11 1 14 24 -1.</_>
        <_>
          11 9 14 8 3.</_></rects>
      <tilted>0</tilted></_>
    <_>
      <rects>
        <_>
          11 9 14 16 -1.</_>
        <_>
          11 9 7 8 2.</_>
        <_>
          18 17 7 8 2.</_></rects>
      <tilted>0</tilted></_>
    <_>
      <rects>
        <_>
          11 16 12 2 -1.</_>
        <_>
          11 16 6 1 2.</_>
        <_>
          17 17 6 1 2.</_></rects>
      <tilted>0</tilted></_>
    <_>
      <rects>
        <_>
          12 1 1 24 -1.</_>
        <_>
          12 9 1 8 3.</_></rects>
      <tilted>0</tilted></_>
    <_>
      <rects>
        <_>
          12 1 9 2 -1.</_>
        <_>
          15 1 3 2 3.</_></rects>
      <tilted>0</tilted></_>
    <_>
      <rects>
        <_>
          12 1 3 24 -1.</_>
        <_>
          12 9 3 8 3.</_></rects>
      <tilted>0</tilted></_>
    <_>
      <rects>
        <_>
          12 1 4 24 -1.</_>
        <_>
          12 9 4 8 3.</_></rects>
      <tilted>0</tilted></_>
    <_>
      <rects>
        <_>
          12 7 2 2 -1.</_>
        <_>
          12 7 1 1 2.</_>
        <_>
          13 8 1 1 2.</_></rects>
      <tilted>0</tilted></_>
    <_>
      <rects>
        <_>
          12 7 7 15 -1.</_>
        <_>
          12 12 7 5 3.</_></rects>
      <tilted>0</tilted></_>
    <_>
      <rects>
        <_>
          12 21 9 2 -1.</_>
        <_>
          12 22 9 1 2.</_></rects>
      <tilted>0</tilted></_>
    <_>
      <rects>
        <_>
          13 0 2 16 -1.</_>
        <_>
          13 8 2 8 2.</_></rects>
      <tilted>0</tilted></_>
    <_>
      <rects>
        <_>
          13 1 1 24 -1.</_>
        <_>
          13 9 1 8 3.</_></rects>
      <tilted>0</tilted></_>
    <_>
      <rects>
        <_>
          13 2 12 23 -1.</_>
        <_>
          19 2 6 23 2.</_></rects>
      <tilted>0</tilted></_>
    <_>
      <rects>
        <_>
          13 7 1 9 -1.</_>
        <_>
          13 10 1 3 3.</_></rects>
      <tilted>0</tilted></_>
    <_>
      <rects>
        <_>
          13 8 1 2 -1.</_>
        <_>
          13 9 1 1 2.</_></rects>
      <tilted>0</tilted></_>
    <_>
      <rects>
        <_>
          13 11 1 3 -1.</_>
        <_>
          13 12 1 1 3.</_></rects>
      <tilted>0</tilted></_>
    <_>
      <rects>
        <_>
          13 11 12 5 -1.</_>
        <_>
          19 11 6 5 2.</_></rects>
      <tilted>0</tilted></_>
    <_>
      <rects>
        <_>
          13 18 2 2 -1.</_>
        <_>
          13 18 1 1 2.</_>
        <_>
          14 19 1 1 2.</_></rects>
      <tilted>0</tilted></_>
    <_>
      <rects>
        <_>
          13 21 8 2 -1.</_>
        <_>
          13 22 8 1 2.</_></rects>
      <tilted>0</tilted></_>
    <_>
      <rects>
        <_>
          14 2 9 9 -1.</_>
        <_>
          17 2 3 9 3.</_></rects>
      <tilted>0</tilted></_>
    <_>
      <rects>
        <_>
          14 4 10 15 -1.</_>
        <_>
          14 9 10 5 3.</_></rects>
      <tilted>0</tilted></_>
    <_>
      <rects>
        <_>
          14 7 11 15 -1.</_>
        <_>
          14 12 11 5 3.</_></rects>
      <tilted>0</tilted></_>
    <_>
      <rects>
        <_>
          14 10 10 7 -1.</_>
        <_>
          19 10 5 7 2.</_></rects>
      <tilted>0</tilted></_>
    <_>
      <rects>
        <_>
          14 15 2 1 -1.</_>
        <_>
          15 15 1 1 2.</_></rects>
      <tilted>0</tilted></_>
    <_>
      <rects>
        <_>
          14 18 1 2 -1.</_>
        <_>
          14 19 1 1 2.</_></rects>
      <tilted>0</tilted></_>
    <_>
      <rects>
        <_>
          15 1 5 21 -1.</_>
        <_>
          15 8 5 7 3.</_></rects>
      <tilted>0</tilted></_>
    <_>
      <rects>
        <_>
          15 7 6 2 -1.</_>
        <_>
          15 7 3 1 2.</_>
        <_>
          18 8 3 1 2.</_></rects>
      <tilted>0</tilted></_>
    <_>
      <rects>
        <_>
          15 10 8 9 -1.</_>
        <_>
          15 13 8 3 3.</_></rects>
      <tilted>0</tilted></_>
    <_>
      <rects>
        <_>
          15 11 1 6 -1.</_>
        <_>
          15 13 1 2 3.</_></rects>
      <tilted>0</tilted></_>
    <_>
      <rects>
        <_>
          15 16 1 2 -1.</_>
        <_>
          15 17 1 1 2.</_></rects>
      <tilted>0</tilted></_>
    <_>
      <rects>
        <_>
          15 17 2 2 -1.</_>
        <_>
          15 17 1 1 2.</_>
        <_>
          16 18 1 1 2.</_></rects>
      <tilted>0</tilted></_>
    <_>
      <rects>
        <_>
          15 18 1 2 -1.</_>
        <_>
          15 19 1 1 2.</_></rects>
      <tilted>0</tilted></_>
    <_>
      <rects>
        <_>
          15 23 10 2 -1.</_>
        <_>
          20 23 5 2 2.</_></rects>
      <tilted>0</tilted></_>
    <_>
      <rects>
        <_>
          16 0 8 1 -1.</_>
        <_>
          20 0 4 1 2.</_></rects>
      <tilted>0</tilted></_>
    <_>
      <rects>
        <_>
          16 7 3 12 -1.</_>
        <_>
          16 11 3 4 3.</_></rects>
      <tilted>0</tilted></_>
    <_>
      <rects>
        <_>
          16 15 2 2 -1.</_>
        <_>
          16 15 1 1 2.</_>
        <_>
          17 16 1 1 2.</_></rects>
      <tilted>0</tilted></_>
    <_>
      <rects>
        <_>
          16 16 2 2 -1.</_>
        <_>
          16 16 1 1 2.</_>
        <_>
          17 17 1 1 2.</_></rects>
      <tilted>0</tilted></_>
    <_>
      <rects>
        <_>
          16 17 1 2 -1.</_>
        <_>
          16 18 1 1 2.</_></rects>
      <tilted>0</tilted></_>
    <_>
      <rects>
        <_>
          17 15 2 1 -1.</_>
        <_>
          18 15 1 1 2.</_></rects>
      <tilted>0</tilted></_>
    <_>
      <rects>
        <_>
          17 18 8 7 -1.</_>
        <_>
          21 18 4 7 2.</_></rects>
      <tilted>0</tilted></_>
    <_>
      <rects>
        <_>
          18 9 2 1 -1.</_>
        <_>
          19 9 1 1 2.</_></rects>
      <tilted>0</tilted></_>
    <_>
      <rects>
        <_>
          18 11 1 2 -1.</_>
        <_>
          18 12 1 1 2.</_></rects>
      <tilted>0</tilted></_>
    <_>
      <rects>
        <_>
          18 15 2 1 -1.</_>
        <_>
          19 15 1 1 2.</_></rects>
      <tilted>0</tilted></_>
    <_>
      <rects>
        <_>
          20 8 2 1 -1.</_>
        <_>
          21 8 1 1 2.</_></rects>
      <tilted>0</tilted></_>
    <_>
      <rects>
        <_>
          20 17 2 2 -1.</_>
        <_>
          20 17 1 1 2.</_>
        <_>
          21 18 1 1 2.</_></rects>
      <tilted>0</tilted></_>
    <_>
      <rects>
        <_>
          21 7 4 1 -1.</_>
        <_>
          23 7 2 1 2.</_></rects>
      <tilted>0</tilted></_>
    <_>
      <rects>
        <_>
          21 19 4 6 -1.</_>
        <_>
          23 19 2 6 2.</_></rects>
      <tilted>0</tilted></_>
    <_>
      <rects>
        <_>
          22 3 3 13 -1.</_>
        <_>
          23 3 1 13 3.</_></rects>
      <tilted>0</tilted></_>
    <_>
      <rects>
        <_>
          22 9 2 4 -1.</_>
        <_>
          22 9 1 2 2.</_>
        <_>
          23 11 1 2 2.</_></rects>
      <tilted>0</tilted></_>
    <_>
      <rects>
        <_>
          24 1 1 24 -1.</_>
        <_>
          24 9 1 8 3.</_></rects>
      <tilted>0</tilted></_>
    <_>
      <rects>
        <_>
          24 2 1 15 -1.</_>
        <_>
          24 7 1 5 3.</_></rects>
      <tilted>0</tilted></_></features></cascade>
</opencv_storage>
