<?xml version="1.0"?>
<opencv_storage>
<stage4>
  <maxWeakCount>21</maxWeakCount>
  <stageThreshold>-5.9463769197463989e-01</stageThreshold>
  <weakClassifiers>
    <_>
      <internalNodes>
        0 -1 146420 -3.0326751992106438e-02</internalNodes>
      <leafValues>
        8.1836271286010742e-01 -3.7812501192092896e-01</leafValues></_>
    <_>
      <internalNodes>
        0 -1 147819 7.7583819627761841e-02</internalNodes>
      <leafValues>
        -6.2261891365051270e-01 5.2875226736068726e-01</leafValues></_>
    <_>
      <internalNodes>
        0 -1 139408 -5.3411651402711868e-02</internalNodes>
      <leafValues>
        5.4411619901657104e-01 -3.5673433542251587e-01</leafValues></_>
    <_>
      <internalNodes>
        0 -1 102204 4.2942621803376824e-05</internalNodes>
      <leafValues>
        -4.6883687376976013e-01 3.5039833188056946e-01</leafValues></_>
    <_>
      <internalNodes>
        0 -1 106378 -4.0446615219116211e-01</internalNodes>
      <leafValues>
        7.5828713178634644e-01 -1.8716791272163391e-01</leafValues></_>
    <_>
      <internalNodes>
        0 -1 49478 -5.6178796291351318e-01</internalNodes>
      <leafValues>
        8.5638964176177979e-01 -2.5390899181365967e-01</leafValues></_>
    <_>
      <internalNodes>
        0 -1 42894 -2.5525139790261164e-05</internalNodes>
      <leafValues>
        3.0072215199470520e-01 -6.5641319751739502e-01</leafValues></_>
    <_>
      <internalNodes>
        0 -1 165223 4.7916713810991496e-05</internalNodes>
      <leafValues>
        -4.7058427333831787e-01 1.9722874462604523e-01</leafValues></_>
    <_>
      <internalNodes>
        0 -1 99071 1.9610781222581863e-02</internalNodes>
      <leafValues>
        -1.7136494815349579e-01 6.6145735979080200e-01</leafValues></_>
    <_>
      <internalNodes>
        0 -1 126147 -3.1696572899818420e-02</internalNodes>
      <leafValues>
        5.6424891948699951e-01 -2.0375826954841614e-01</leafValues></_>
    <_>
      <internalNodes>
        0 -1 152984 -4.3894047848880291e-05</internalNodes>
      <leafValues>
        4.6534088253974915e-01 -1.9898173213005066e-01</leafValues></_>
    <_>
      <internalNodes>
        0 -1 29233 9.5502147451043129e-03</internalNodes>
      <leafValues>
        1.8420751392841339e-01 -5.8966547250747681e-01</leafValues></_>
    <_>
      <internalNodes>
        0 -1 9080 -9.1820299625396729e-02</internalNodes>
      <leafValues>
        1.3881348073482513e-01 -5.5004787445068359e-01</leafValues></_>
    <_>
      <internalNodes>
        0 -1 165082 -4.6501165343215689e-05</internalNodes>
      <leafValues>
        3.4678211808204651e-01 -2.5331750512123108e-01</leafValues></_>
    <_>
      <internalNodes>
        0 -1 73791 -1.6338759660720825e-01</internalNodes>
      <leafValues>
        8.0977398157119751e-01 -1.0711116343736649e-01</leafValues></_>
    <_>
      <internalNodes>
        0 -1 146176 2.5575503968866542e-05</internalNodes>
      <leafValues>
        -4.8163348436355591e-01 2.1092069149017334e-01</leafValues></_>
    <_>
      <internalNodes>
        0 -1 85919 -3.6100584268569946e-01</internalNodes>
      <leafValues>
        7.7749717235565186e-01 -1.3682976365089417e-01</leafValues></_>
    <_>
      <internalNodes>
        0 -1 129381 4.9408219638280571e-05</internalNodes>
      <leafValues>
        -2.4802415072917938e-01 3.1387194991111755e-01</leafValues></_>
    <_>
      <internalNodes>
        0 -1 151271 -1.7853859753813595e-04</internalNodes>
      <leafValues>
        3.2699459791183472e-01 -2.3909619450569153e-01</leafValues></_>
    <_>
      <internalNodes>
        0 -1 96645 -4.9353981012245640e-05</internalNodes>
      <leafValues>
        3.3125534653663635e-01 -2.1317145228385925e-01</leafValues></_>
    <_>
      <internalNodes>
        0 -1 160538 -1.7394079267978668e-01</internalNodes>
      <leafValues>
        5.8208519220352173e-01 -1.1998555809259415e-01</leafValues></_></weakClassifiers></stage4>
</opencv_storage>
