<?xml version="1.0"?>
<opencv_storage>
<stage3>
  <maxWeakCount>15</maxWeakCount>
  <stageThreshold>-7.4490988254547119e-01</stageThreshold>
  <weakClassifiers>
    <_>
      <internalNodes>
        0 -1 25043 -1.1460945010185242e-01</internalNodes>
      <leafValues>
        8.5720592737197876e-01 -3.4767836332321167e-01</leafValues></_>
    <_>
      <internalNodes>
        0 -1 131582 -2.4500948190689087e-01</internalNodes>
      <leafValues>
        7.8591471910476685e-01 -3.5531681776046753e-01</leafValues></_>
    <_>
      <internalNodes>
        0 -1 25643 -2.0941087603569031e-01</internalNodes>
      <leafValues>
        7.4062359333038330e-01 -2.1117579936981201e-01</leafValues></_>
    <_>
      <internalNodes>
        0 -1 170359 2.2639400413027033e-05</internalNodes>
      <leafValues>
        -4.9911504983901978e-01 4.0472361445426941e-01</leafValues></_>
    <_>
      <internalNodes>
        0 -1 190515 5.0205113366246223e-03</internalNodes>
      <leafValues>
        2.2155417501926422e-01 -7.1862733364105225e-01</leafValues></_>
    <_>
      <internalNodes>
        0 -1 178776 2.2718417312717065e-05</internalNodes>
      <leafValues>
        -5.1839011907577515e-01 2.9335445165634155e-01</leafValues></_>
    <_>
      <internalNodes>
        0 -1 86205 -2.1871243417263031e-01</internalNodes>
      <leafValues>
        8.9871323108673096e-01 -1.9436953961849213e-01</leafValues></_>
    <_>
      <internalNodes>
        0 -1 75083 -2.9443937540054321e-01</internalNodes>
      <leafValues>
        8.1096184253692627e-01 -1.6358125209808350e-01</leafValues></_>
    <_>
      <internalNodes>
        0 -1 61230 -2.5089902919717133e-05</internalNodes>
      <leafValues>
        2.6154613494873047e-01 -5.7871460914611816e-01</leafValues></_>
    <_>
      <internalNodes>
        0 -1 142394 -2.2305177481030114e-05</internalNodes>
      <leafValues>
        4.6688231825828552e-01 -2.5991302728652954e-01</leafValues></_>
    <_>
      <internalNodes>
        0 -1 129102 -4.7245557652786374e-05</internalNodes>
      <leafValues>
        2.8408822417259216e-01 -3.7276247143745422e-01</leafValues></_>
    <_>
      <internalNodes>
        0 -1 170058 -8.2408034359104931e-05</internalNodes>
      <leafValues>
        4.0999349951744080e-01 -2.7220734953880310e-01</leafValues></_>
    <_>
      <internalNodes>
        0 -1 958 -1.4667488634586334e-01</internalNodes>
      <leafValues>
        3.0897054076194763e-01 -3.7052851915359497e-01</leafValues></_>
    <_>
      <internalNodes>
        0 -1 67110 2.2834288756712340e-05</internalNodes>
      <leafValues>
        -3.2356306910514832e-01 3.1040740013122559e-01</leafValues></_>
    <_>
      <internalNodes>
        0 -1 10315 3.3364839851856232e-02</internalNodes>
      <leafValues>
        -2.8351232409477234e-01 3.6530092358589172e-01</leafValues></_></weakClassifiers></stage3>
</opencv_storage>
